12 128
1 -0.0024279356 -0.0006485712 0.0032784797 -7.142978e-05 0.0033057057 -0.0037129251 0.000923776 0.0035128538 -0.00085798744 0.0002427296 0.0029749265 0.0037697428 -0.0034199904 0.0025137584 -0.0021832902 -0.0011503536 0.002656669 0.00067848596 -0.0021102636 -0.00021750515 0.0006756408 -0.0013589225 -0.0015328769 -0.0025572933 -0.00065651134 -0.0014440301 -0.0025820897 0.0010954244 -0.001572323 -0.0033504164 3.752612e-05 0.0010911978 -0.0010696299 0.003428533 -0.0025237997 -0.0023285402 0.0035040816 0.0030576002 0.0008549051 0.003322024 8.104367e-05 0.0034848196 0.002771087 -0.0014913266 0.0025164061 -0.00024594343 0.0034894457 0.00063280587 0.0024571114 -0.0027844121 -0.0014512945 -0.0015108156 -0.00059546507 -0.002897676 -0.0003947844 0.0011809012 0.0027625754 0.002913647 -0.0023857781 -0.0029916302 0.00040810302 0.00022493098 0.00050507725 -0.002312172 -0.0020033293 0.001203827 0.00077030546 -0.0030402413 -0.000988671 0.0022005076 0.0009683859 -0.0013513764 0.0031251276 0.0012180846 0.002733345 0.0011873158 0.0033117658 -0.0022251282 0.0023174938 -0.0019370411 0.0015044641 -0.002856874 2.7861195e-05 0.0034733661 -0.00029914765 0.003375998 0.0030053598 -0.0010532589 0.00036154556 -0.0027083377 0.00035649393 -6.431871e-05 -0.0020639068 -0.0012084522 -0.0012383703 0.0028484417 -0.00386392 0.00018216566 0.0010067286 0.0038571127 -0.0030136418 -0.00041277384 0.0012972681 -0.003344209 -0.0024522045 -0.0024908558 0.0011523003 -0.0025308605 -0.0005465225 0.0019310933 -0.002846114 0.00079269026 -0.0014553294 0.0030270526 0.003740284 0.003335204 -0.0018909784 -0.0018617695 -0.0018780609 -0.0010889923 0.0027312138 0.003299262 0.0030818232 0.00020473603 2.8287315e-05 -0.00072823185 0.00013423563 0.0016955052
2 0.0029965402 0.00071332284 -0.00016505916 -0.0011301748 0.00089320017 0.0001227912 0.00070756034 -0.00045212713 -0.002734565 0.0021024263 0.0022614065 -0.0010886285 -0.0027752875 -0.003073095 0.0038087135 0.0020984965 0.0033019644 -0.0009560656 -0.0017984724 -0.0011476285 0.0017468712 0.0038359007 0.003716153 -0.0016112325 -0.0029913494 -0.0022705814 -0.0022301886 -0.0019675607 -0.0035203486 -0.0034107917 -0.0016299989 0.0030653437 -0.0007409338 0.0037243639 -0.0013912225 -0.0012246765 -0.0019551055 -0.0011205592 -0.00013165921 -0.0034450374 0.00036686106 0.00017159854 -0.0033923672 0.0019469453 0.0026804274 0.0017930836 0.0023503106 0.0036477146 -0.0024227551 -0.00091060164 -0.0026105803 0.0031580857 -0.000743329 -0.0005527355 0.00070933125 0.0008515985 -0.0031037012 0.001456163 -0.0006396186 -0.0031725124 -0.003825698 0.002627392 -0.0021909222 0.002345639 -0.0014697969 -0.0018606102 -0.0036483435 0.002059394 0.0012180286 0.0006858749 -0.0013554684 0.003817528 0.003353951 -0.0031134202 0.002576087 -0.0011885914 -7.443596e-05 0.00025258592 0.0023798118 0.0018618475 0.0016008597 0.0013132069 0.0036178767 0.00025572645 0.002755372 -0.0014204045 0.002933171 0.0010411232 0.0013004793 0.0012861645 -0.0008460618 -0.002965126 0.0024414351 -0.0015451281 -0.0021726834 -0.00022622899 -0.0026148881 0.0007403797 0.0037048878 -0.0008324206 -0.0003464545 -0.00063644635 -0.0012851685 0.0017435736 -0.0038758276 0.0031444055 -0.0031864971 -0.001827368 0.002800904 -0.0018287026 -0.0021731614 -0.00044344197 0.0015460998 0.00026445618 0.0019737016 -0.0015993125 0.0032772403 0.0011931666 0.00039143633 -0.0016979816 -0.0013229401 0.0020372358 0.0038336227 -0.0035958644 0.0020555486 -0.0014938504 -0.0010366914 -0.0013960137
7 -0.0017000464 0.0033706143 -0.00023012684 0.0002729116 -0.00016640597 0.001674091 -0.0026254854 0.0013299305 0.0016285544 -0.0013222324 0.002014881 0.0025130238 -0.00044009814 0.0011118812 0.0023597407 -0.0023534182 -0.0022083884 0.0032260285 -0.002064471 -0.0025158806 -0.0019304788 -0.00071321527 -0.00068318914 0.002483953 -0.001600049 0.0015874157 0.0019087336 0.0036988964 0.00074478064 0.0028903799 0.0032991385 -0.00027955172 0.0025589766 -0.00089649024 -0.0035901773 0.0017856276 0.0038763618 0.0011647819 0.002182405 0.0037143892 -0.003234313 -0.00040669885 -0.0024888301 -0.0025377192 0.0018757775 0.0030284852 0.0010552468 -0.0035078404 0.0033961844 -0.00052514847 -0.003803657 0.0032737188 0.002380942 -0.0020598583 -0.0021009094 0.0028750785 -0.0016810256 0.0024522624 -0.0027843278 -0.003276046 0.0030058709 0.0022485212 0.0023175594 -0.0030883322 0.001271887 0.0034094953 -0.0015508442 0.0014929993 0.0026111999 -0.00041028147 -0.0025286784 0.002911267 0.0031337517 0.0025549133 -0.0031764864 -0.00011720881 -0.00067227666 0.0013207272 0.003827408 0.0032327734 -0.0017951581 -0.0004917964 0.00044877388 -0.00014620398 -0.0021479838 0.0004945579 -0.0030820086 0.0015822665 0.0029354226 -0.0036132177 -2.8854485e-05 0.003494759 0.00017497975 -0.0027384963 0.0008101087 0.0038505648 0.0033724315 0.0018841791 -0.0017112663 0.00042921567 -0.0035852164 -0.0005067398 0.0024966467 -3.7765843e-05 -6.0200986e-05 0.0018834389 0.0013455899 -0.0002744346 0.0032087348 0.0019473268 -0.0030522854 0.00034773521 0.0026162532 -0.001420036 -0.0029921434 0.0020089361 0.00012287316 0.0030081463 -0.00087308453 -0.0013777121 -0.0013770005 -9.228276e-05 0.0019706322 -0.00085449225 -0.0038398646 -0.0011067962 0.003178593 -0.0037722203
6 -3.407634e-05 0.0026119114 -0.0035622513 0.0018673106 -0.00027639087 -0.0030537676 -0.00097141624 -0.0035035585 -0.0014395342 -0.0013056794 0.0025094855 -0.0010627438 0.0030734392 0.0005453773 0.0009119831 -0.0014673482 -0.0026718003 0.0014211659 -0.0026554677 0.002776279 0.00093491265 -0.0025604884 -0.001239761 -0.0026723032 -0.0018829147 0.0025050705 -0.001602829 0.0019630608 -0.00033747827 -0.0015066823 -0.0019675184 -0.0034771208 0.0016823589 0.002032795 0.0034956785 0.00304514 0.0033569394 0.0031828056 0.0020132386 0.0035178566 0.0034700562 -0.0038396495 -0.0017403502 0.0007187015 -0.0014341102 0.0022989127 -0.0030530125 -0.0020336385 0.0020775232 0.0032950407 0.0025120925 0.0031486952 -0.0015549659 0.0029680126 0.0021589408 -0.0029203896 0.0026788956 -0.0011798675 0.001974279 -0.0019704436 -1.0200664e-05 0.00048788008 -0.0005711658 -0.0035712104 -0.0012513738 5.255796e-05 -0.0031586373 0.0009070419 0.0016552308 -0.0028746186 -0.00032098856 0.0006389446 -0.0025878167 -0.0011994865 0.0039014884 0.0035525726 0.0013777001 0.003399638 -0.0037693062 0.0001649256 -0.003128025 -0.0034101831 -0.0021095676 -0.0006786352 0.0005103447 -0.0016911167 -0.0033689318 0.0015558967 0.0027662623 -0.0017995482 0.0018386642 -0.0027476978 -0.0025708026 0.0013963098 -0.0027826286 0.0004472828 0.0015743229 -0.002779819 0.0004246039 0.0018697988 -0.0030174204 0.0017612043 0.0011207939 0.001686793 0.0010901141 -0.0015394489 -0.0014007725 -0.00013891289 0.0026122134 0.002372974 0.00039923875 0.00059592567 0.003257942 -0.0015902761 0.0011274422 0.0016189718 -0.0016366985 0.0010137237 0.0010406743 -0.0013022941 -0.0029190765 0.0011650461 0.0029451635 0.0013122958 -0.0027584406 -0.0036476243 -0.0018655092 0.0030967875
10 0.0033213932 0.0008065017 0.0014208691 0.0024137995 0.0009299938 0.0026164362 -0.0031142964 -0.0006680497 0.0030200433 -0.0015098647 -0.0036486888 -0.0020370865 -0.0019918254 0.0027495692 -0.0016066408 -8.396553e-05 0.0026296072 0.0011956237 0.00013871468 -0.003822774 -0.0010766078 0.0010480741 -0.001023061 -0.00026075114 -0.0029531403 0.0009016973 0.0016041631 0.0018414262 0.0031027652 -0.0005543557 0.00069167477 0.00081963785 -0.0003686532 -0.003299066 0.0033798278 -0.0011183224 -0.0013661123 0.0030924187 -0.002528459 -0.0024662374 0.0015608778 0.002295528 -0.0020552597 -0.0024966768 0.0024834767 0.0014054428 -0.0028111658 0.0029922978 0.0017945276 -0.00016723623 -1.8376358e-06 -0.0036348838 0.0013740272 9.609937e-05 -0.0019754225 0.0034785718 0.00047337232 0.0010261126 0.0012112809 -0.0015106873 -0.0013807815 0.0033192195 0.0031728486 0.00063226477 0.0012808001 -0.0015224671 6.45373e-05 0.00060994655 0.0025700836 -0.0005948505 0.0030995135 -0.0010523912 -0.0030939816 0.0033600782 -0.003858884 0.00011830817 0.0014900864 -0.00014339072 0.0006126464 -0.0031942967 0.0020428072 0.0036063846 -0.0030832964 -0.003208333 -0.0014447074 -0.0009418684 -0.0027938029 0.0014827198 0.0008751973 -0.0031689361 -0.002819388 7.317903e-06 -0.0025892863 -0.003213644 -0.0036320952 -0.0027864217 -0.003106568 -0.003586927 -0.0006091734 0.0010899454 0.0030780053 0.00085669575 -0.0028966242 0.0030440197 -0.0018618142 -0.0032382794 0.0021496431 -0.0011357348 0.0029702606 -0.0016899753 -0.00013064964 -0.0009685074 0.0029249138 4.9146997e-06 0.00070956984 -0.0017195033 -0.00042996404 0.00023681733 -0.002926712 -0.00076109974 0.0016953263 0.0011059779 -0.0035600783 -0.0027053852 0.0031802384 0.002767848 -0.0022165868 0.0024362658
3 0.0028374204 0.0021107192 -0.0020732346 -0.0035409518 0.0021263356 -0.0011561379 0.00029984504 0.0026392303 0.0008187259 0.0034498214 0.002986267 0.0012745328 0.0024545644 -0.0015189187 0.00042684074 0.0011422393 -0.0035344467 0.0013655504 -0.0024769958 -0.0010634189 0.003462445 0.0015546624 -0.0012953444 0.003741262 -0.00021137102 0.0022775708 0.0015138437 -0.00086933235 -0.0020161278 -0.0004853554 0.0025671357 0.00015120617 0.0017008351 -0.0007999858 0.0037899753 -0.001087997 -0.0004959305 -0.0013431153 -0.001491827 -0.0038147795 0.0020758847 -0.0037400709 0.0008434757 0.0020963368 0.0015025672 0.0017868257 -0.0022097195 0.0018546693 -0.0021444221 -0.0021925499 0.0019554887 0.0010370231 -0.002493663 0.0024759804 0.0025233747 0.0004129415 0.003704534 0.0003650404 -0.0010544353 -0.0005865405 -0.0031701229 -0.00019330643 -0.003262184 -0.0013149895 0.0015610723 -0.0028332884 -0.0011438351 -0.0029805852 0.00173717 -0.0026682091 0.0036511756 -0.0014750932 -0.0010505131 0.0017158514 -0.0038925426 -0.0028031755 -0.0023646266 0.0021798331 -0.0024351685 -0.0030200488 0.0018005975 -0.00044914117 0.0010384949 0.0025279252 0.0023538168 -0.00020321869 0.0014009837 -0.0002985771 0.0006822316 -0.00021329262 -0.0014659868 0.0005550238 -0.0020909535 0.00078545266 0.0030991985 -0.0027432647 -0.0013527527 0.001357631 -0.0015831845 0.001314309 -0.0010989226 -0.00082145195 -0.00186025 0.000708851 0.0011784486 0.0032096219 -0.0025138995 -0.0006911522 0.00026928476 0.0015380604 0.0012863791 0.0031980628 -0.0024271177 -0.0012162513 0.0020190845 0.0028497495 -0.0023592669 -0.0025200257 -0.0012074603 0.0006810865 0.00020627002 0.0015660223 0.0025040316 -0.002700999 -0.0033586558 0.0022229275 -0.0011215206 -0.00081353926
8 -0.0034602853 -0.002764415 -0.0010165354 0.00064278266 -0.0020193371 0.0029948684 -0.002281574 0.0034677552 -0.0013017274 0.0008006854 0.0025421141 0.0037819622 -0.0023325286 -0.0020669072 0.0018413313 -0.0009313339 -0.00037566732 0.0015864208 0.0018728466 -0.0017025742 0.001077979 0.0022154914 0.0012834888 0.00061971485 -0.0009264278 -0.00079055387 -0.0033499396 -0.0035768086 0.0031534412 -0.0015753526 0.0026687875 0.0004940067 -0.0034940478 -0.0013110492 0.0018339925 -0.00017099585 0.002644888 0.0029459875 0.0034137557 0.0014973604 -0.0006895744 0.00077716616 0.00074948097 0.0012104011 -6.450178e-05 0.0012949189 -0.0009031774 0.00066748844 0.00316381 0.00020324819 -0.00039386202 0.0013594338 0.0005331796 0.0036687762 0.0027494314 0.0037535382 0.00017914979 0.0012010087 -0.0015647814 -0.0006703933 6.38867e-05 -0.0011035805 0.0014511391 0.003736383 0.002008188 0.0018411354 -0.0019334791 -0.0007868387 -0.00072064676 0.0026275134 -0.0007073442 -0.0030100632 -0.0012188846 0.0032335853 -0.0005952352 -0.0015329013 0.002598384 0.0014232541 -0.003551876 -0.0033592565 -0.000107296626 -0.0025287431 -0.0036962407 -0.002601408 0.0002336222 0.0020477804 -0.0028133353 0.00088068325 0.0007903963 0.001389796 -0.00072586327 -0.003510463 -0.0033035574 -0.0030702495 0.0036193146 0.0007422948 -0.0013653341 -0.00012867073 -0.0033276512 0.00091334945 -0.0023533623 -0.0019696513 8.268953e-05 0.00021483099 0.0024875964 0.0025287773 -0.00076070044 -0.0020653205 0.0019965137 -0.0025518218 0.0025539796 0.0015727552 -0.0009279741 -0.0030203755 0.0032640456 -3.7282894e-05 0.00044171815 0.0024630695 -0.0007796813 0.00071899674 -0.0002724512 0.0037904338 -0.0013604542 0.001183423 0.0011666951 0.0013199637 -0.0035909165 -0.0023783634
5 0.001712837 0.0016764485 0.0022152795 0.0002814709 0.0028126177 0.0032997685 0.003518323 0.0020087934 0.0017040191 0.002430991 0.002739829 -0.0030905928 0.00060625764 0.0006410764 0.0007103699 -0.00027591744 -0.0021173686 -0.0015155786 0.00039855478 -0.0025276463 -0.001535041 0.001125044 -0.0028451728 0.00026253652 -3.1514264e-05 -0.0019332183 0.003054721 0.0026006263 0.0002741923 -0.00048339786 -0.0012695274 0.0006355422 -0.00066728477 0.0007975587 -0.001766467 -0.0014989728 0.0007633238 0.0028441588 0.0010196976 -0.002885597 -0.0011900933 0.0033681276 0.0036879755 -0.000915802 -0.0017402509 -0.0022494767 0.0013213129 0.002705552 0.0013129346 0.0026404317 -0.000500127 0.002588808 0.0038327933 0.0027744349 -0.00045638703 0.0008012989 0.0034544193 -0.00034167763 -0.00064706703 0.0015863561 0.002517747 0.0037090355 0.00027943833 0.0011275416 0.0006963014 0.0019420661 0.0025446434 -0.0012005288 0.0010015231 1.3923187e-05 -0.0030702297 0.0020953815 0.0016877447 3.3320248e-05 0.0019086631 -0.0013988792 -0.0014706467 -0.0013559845 -0.0025452166 -0.000103943465 0.00059313053 0.00012350605 -0.00085903815 0.0020377978 -0.0005817063 0.0006437099 -0.00090242043 0.0037644026 -0.0017883255 -0.0017115503 -0.00081970426 0.0008707825 -0.001985879 0.0003574598 0.0033124795 0.0008287763 0.003878841 0.0035919128 0.003075641 -0.00044884614 0.002564967 -0.0011396458 0.002412858 0.0038727352 0.00044255532 0.0038041968 0.0027152966 -0.0020380088 -0.0029009131 0.0032543177 0.0024783476 -0.0035617857 0.0007263325 -0.001569889 -0.0014162188 -0.0007486623 -0.0022190008 0.0009918154 0.0009379327 0.0008667532 -0.0014725531 0.0003802586 0.0018944917 0.0030174986 -0.00010241538 0.0005981891 0.0008623133 -0.000675727
11 -0.0029352016 -0.00078012206 -0.0031860007 0.0019096038 0.0011525508 0.00078562927 0.0029816956 0.00014858409 0.0015239038 0.002633278 0.0031539581 0.0017323075 0.0023925358 -0.00031275034 -0.0038672583 0.003757899 0.00014073217 -0.0019702069 -0.0005171843 -0.0019513984 0.0023067207 0.0035048109 0.000692806 -0.0014032527 0.0009383887 0.0012716475 -0.0023541942 0.0035912846 -0.002708286 0.0010927485 -0.0036253994 0.00095740485 -0.00076720846 0.0028802755 -0.002892281 -0.0021123728 -0.0019268435 0.0014657731 -0.0022435512 0.001882605 0.003644333 0.0020866434 0.0010861704 5.615002e-05 0.0033485543 0.0013133751 0.00214217 0.0021182473 -0.00088514324 0.0008316498 -0.0035756468 0.00056452345 0.0017989208 0.0031361277 -0.0024710512 -0.00033924126 -0.0012010534 -0.0030919993 -0.0028698782 0.0018318098 -0.0008418804 0.00067658373 0.003658607 0.0024358293 0.0024682553 -0.003872561 0.0015991024 0.0020351703 0.002759087 -0.0033296323 -0.0020161585 0.0029878884 -0.0022031632 0.0027893714 -0.0023269022 0.001561498 -0.0033055525 0.002555205 0.0035812054 -0.0014215491 0.0021264625 -0.002273836 -0.0017979466 -0.0036324146 0.0035437918 -0.0027076886 0.0024770475 0.003234775 -0.00014646747 -0.0013563782 6.6748515e-05 -0.002144157 0.0026426814 -0.0035112407 0.0010204944 -0.00094780856 -0.0018174676 -0.0012982478 -0.003524889 0.0018159263 -5.5462397e-06 -0.003133627 0.0017158568 -0.00014863373 0.0020669436 -0.0021725222 0.0027057016 0.0008011608 0.0022756136 0.0032782396 0.0026672538 -0.00080745114 0.0027963188 -1.665583e-05 -0.0032511721 0.0014753739 -0.00012977317 0.0030919241 -0.0029124268 -0.0027309912 0.0011383104 0.0011701996 -0.000606242 -0.0032256455 -0.003683515 -0.0020061114 0.0037988187 -0.00023275927
12 0.0022390315 0.002715818 -0.0020727857 0.00083137676 0.0004091777 0.002159046 0.0034583127 -0.0027532303 -0.0036626877 -0.00077442406 -0.00029485443 0.0029866344 -0.0018212083 -0.002417371 -0.0023095217 0.003388588 -0.0012954822 -0.00084879866 0.0033257552 0.0025980205 0.0013326298 -0.0012029527 -0.003323246 0.0018300628 -0.0019975968 -0.0013367084 0.0010914123 -0.0037398322 0.0022649611 -0.00092359056 -0.0007226965 0.0012613524 -0.003058029 0.0030693484 -0.000906089 0.0010018933 -0.0007609512 0.00035114857 -0.0037778402 0.0014932753 0.00028489687 -0.0018273314 0.0034766267 -0.002858906 -0.0012799499 0.0025472327 -0.0003786626 0.00048250332 0.0032461649 0.003212709 0.0011216977 0.00067720795 -0.001038663 0.0030928329 -0.0018323011 0.0037800537 -0.0015479509 2.0898346e-05 0.0034964448 -0.00081383286 -0.00061101094 -0.0003246289 -8.641348e-05 0.0025274786 0.0011281032 0.0031038302 -0.0008511371 -0.0017190807 -0.003814873 -0.00027914232 -0.0002928594 -0.00044008784 0.00047992708 -0.0020101287 -0.0030848158 0.0028383948 -0.0028579326 0.002039153 -0.0035754275 0.0024350928 0.00091184676 0.0020398558 -0.0023830452 -0.00091544946 0.0007705708 0.0025731872 -0.0009839159 0.0007969918 0.001550652 -0.0012728345 -0.00236053 0.00041934216 0.00013673025 -0.0027355356 0.00026122507 -0.0021381988 -0.0030600713 0.0025269305 -0.002334801 0.0019613525 -0.0006693119 -0.002348235 0.0020771876 -0.000495581 -2.734647e-05 0.0030966823 -0.0016879637 0.003047235 -0.0024544946 -0.0037379833 0.0015834962 -0.0015306695 0.0014325974 -0.0028279612 -0.0010481969 -0.0003443897 -0.0021090645 0.0014462319 0.0008127284 0.0021174361 9.9296805e-05 0.00045682208 -0.0015886734 0.0017147253 -0.002845366 0.0036660375 0.0030886466 -0.00067099807
4 -0.0021390233 -0.0017316482 -0.0028994149 -0.00049631606 -0.0031102037 -0.0033865843 -0.0004399954 -0.0012516972 -0.0011212392 -0.0001093916 -0.0033097889 0.0013901045 0.00051266706 -0.0034732658 -0.0027097038 0.00013669165 0.0021462152 -0.00087286544 -0.0033368736 0.0011469091 0.002778239 0.002993628 -0.0017740239 0.0020574625 0.00089171354 0.0020513511 -0.0029480392 0.0013100272 0.002899609 0.0017782837 -0.0033337187 -0.0030796048 -0.0023103752 0.00057615706 0.0023852773 -0.0027897405 0.001159044 -0.0029241892 0.00076265784 -0.0037756567 0.0034530512 -0.00062682567 -0.0018096548 -0.0019637572 -0.0011959492 0.003464997 0.0022172232 -0.0019853553 0.0028297778 -0.0028164892 -0.0005781089 -0.0034584664 -0.0020112672 0.0019167323 -0.0034388055 -0.0021767905 -0.0029430182 0.0029048363 0.0035948078 0.0029759554 0.0036950489 0.003299587 -0.0017756022 -0.0021593734 0.003881793 -0.0021378763 0.0037868363 0.0021014393 0.000527797 0.001063073 0.0014747215 -0.00023735929 0.002021656 -0.0011759135 0.0022148895 -0.0036499498 0.0011917461 -0.0037714043 0.00077642757 -0.0022051963 0.0022640447 0.0031107778 -0.00217621 0.00033113346 -0.0018365781 0.0005278214 0.00299744 -0.0027109464 -0.0018911 -0.0008521305 -0.0026860563 0.0015326184 -0.003296858 0.0026496747 -0.0019851371 0.0033317728 0.0012030001 -0.0010194463 -0.0036248511 0.0032504045 0.002187619 -0.0018267161 0.0011896403 -0.0021111392 0.002672863 0.0008959587 0.0005133023 -0.0034809585 -0.0016757485 0.0036361336 -4.9889528e-05 0.0009539785 -5.1446827e-05 0.0001530818 -0.00080995396 0.00096965954 0.0018339473 0.0002481888 0.001553198 -0.00045067637 0.002481974 0.0007388181 0.002949149 0.0030670608 -0.0011865037 -0.0024147718 0.0030229834 0.00094128115
9 -0.0020195418 -0.00090856664 -0.0012505499 0.00083337945 0.0038342688 -0.0032028365 0.0007031458 -0.0034713505 -0.00074055005 -0.0032590497 -0.0014008072 -0.0025318423 -0.0032845256 -0.003003196 0.0036714133 0.0025126955 0.00053068856 -0.0014649987 -0.00028060135 0.0021906537 0.0029548467 -0.0014154002 0.0037616934 -0.0010881566 -0.0026696487 -0.003774775 0.0034249786 0.0010161368 -0.0023357174 -0.0027332609 0.0036447616 -0.0023818612 0.001060189 -0.003357971 -0.003123593 -0.0032145276 -0.00032417625 -0.0012464767 -0.00037294987 0.0033255199 0.00046320204 -0.0033635094 0.0015753515 -0.0017979267 0.0034887113 0.0014338408 -0.0032939939 0.002075023 -0.002321033 0.0032358572 0.00024222344 -0.0022621835 -0.003052462 -0.0027340476 0.0027206622 0.00048742312 0.0027666304 0.0023597074 -0.0034498195 0.0030445685 -0.0033699004 1.136158e-05 -0.00083853723 0.0016582672 -0.0027107024 -0.00017149176 0.002704821 0.0026924724 0.0005970531 -0.00015357067 0.0037977854 0.0010882162 0.0025875592 0.0012798143 0.0035396223 -5.0348473e-05 -0.00028140194 -0.00010778565 0.0013009836 0.0012151293 0.00092862936 0.0008030709 0.0022598812 -6.221724e-05 -0.0007955945 -0.00065893034 -0.0017607007 0.0025849498 0.0033935546 0.001475178 -0.0022558905 0.003586764 0.0013124223 0.0030440746 -0.0012334145 0.003136352 0.00080147025 0.00081730826 -0.003606982 -0.0020470223 -0.002123231 0.0030364473 -0.0031560212 0.0009303986 -0.002233007 -0.002817949 -0.0020717348 -0.0033985036 -0.00309761 -0.00082604314 0.00087428826 -0.0022910137 -0.0010703512 -0.0008023067 -0.00042532463 -0.0021174627 -0.0037032755 0.002205297 0.00046313636 -4.135859e-05 -0.0025776408 0.0028844483 -0.0013501955 0.002790199 0.0030154171 4.7383364e-05 -0.0033561497 0.0020622925
